{"lang": "en", "letters": " abcdefghijklmnopqrstuvwxyz", "letters_embedding": [[0.0, 255.0, 0.0], [0.0, 0.0, 169.0], [26.0, 62.0, 0.0], [0.0, 39.0, 0.0], [147.0, 21.0, 0.0], [0.0, 0.0, 84.0], [89.0, 0.0, 0.0], [57.0, 42.0, 0.0], [93.0, 40.0, 0.0], [0.0, 0.0, 255.0], [18.0, 102.0, 0.0], [130.0, 26.0, 0.0], [37.0, 18.0, 0.0], [0.0, 68.0, 0.0], [0.0, 0.0, 38.0], [0.0, 0.0, 114.0], [0.0, 56.0, 0.0], [8.0, 58.0, 0.0], [63.0, 12.0, 0.0], [194.0, 0.0, 0.0], [0.0, 0.0, 0.0], [0.0, 0.0, 191.0], [25.0, 78.0, 0.0], [74.0, 0.0, 0.0], [0.0, 68.0, 0.0], [255.0, 0.0, 0.0], [54.0, 84.0, 0.0]], "group": [{"type": "linear", "weight": [[-2, -5, 1, -7, -13, 35, -6, -19, -38, 127, -22, 92], [-16, -9, -27, -10, 39, 34, -9, 35, 47, -32, -127, 127], [0, 6, -1, -5, -16, -6, 6, 4, 8, -17, -127, -91], [-7, 16, -22, 41, 17, -26, -28, -117, -11, 127, 86, 98], [0, 1, 3, -4, 3, -13, -5, -6, 6, -127, 36, 18], [0, -4, 3, 8, -26, 3, -35, -85, -40, 15, 127, 115], [-4, 19, -10, 11, 44, -8, -39, -113, -127, 0, -6, 14], [1, -3, 2, -7, -31, -21, -32, -127, 74, -95, -12, -67], [7, 11, 9, 2, -25, -20, 6, -4, -9, 26, 19, 127], [-1, -1, -1, 2, 15, -17, -22, -46, -16, -30, -127, -13], [1, -3, 7, -2, 3, -11, 22, 45, 12, -14, 37, -127], [3, 2, 0, -4, -17, 0, -8, 57, -81, 25, 127, 56], [-19, 31, -6, -17, -97, -46, 73, 5, 13, 66, 127, -35], [-2, -19, 1, 2, -8, 43, -60, -127, -48, 83, -1, 1], [1, -1, 0, -3, 1, -3, 15, 45, 6, -12, -127, -75], [-3, 9, 5, -1, -19, 2, -98, 25, -13, -105, -78, -127]], "bias": [-11488, -7467, 4048, -21701, -1359, -6146, 6078, 423, -1937, 2409, -2018, -14516, -3848, 8141, 1476, 7639], "input_shift": [1, 0, 0, 0, 0, 0, 0, 0, 0, 0, 0, 0], "input_clamp": [[-253993, -509991, -509991, -509991, -509991, -509991, -509991, -509991, -509991, -509991, -509991, -509991], [254120, 510246, 510246, 510246, 510246, 510246, 510246, 510246, 510246, 510246, 510246, 510246]]}, {"type": "relu"}, {"type": "linear", "weight": [[-30, -37, 5, 35, -14, -29, -21, 11, -40, 51, -77, 39, -23, -37, -127, 27], [14, -42, 96, -11, 60, 12, -9, -70, -40, 127, 2, -70, -11, 16, 16, 14], [-45, 29, -112, -12, -28, -93, 27, 37, 48, 20, -127, 2, 21, 59, 85, -119], [-56, -87, -22, -9, -127, -107, 80, 15, -68, -13, 17, -23, 63, 42, 30, 51], [60, -7, -127, -63, -12, 62, 26, -11, -10, -9, 8, -9, -21, -67, 35, 71], [-103, -29, -36, -41, 48, -10, 122, 2, -24, -127, -2, 18, 22, -22, -5, 3]], "bias": [183814, -210091, -176755, 504331, 76814, 170961], "input_shift": [2, 2, 0, 1, 0, 1, 2, 0, 1, 0, 0, 0, 2, 2, 0, 1], "input_clamp": [[-756047, -1083788, -771540, -1150428, -1075889, -1446063, -651020, -1970995, -1749701, -622659, -1913371, -2894464, -1281283, -1020589, -1328380, -851655], [763512, 1094489, 779158, 1161787, 1086512, 1460341, 657448, 1990456, 1766977, 628807, 1932263, 2923043, 1293934, 1030666, 1341496, 860064]]}, {"type": "relu"}], "head": [{"type": "linear", "weight": [[1, -2, -12, -5, -3, 3, -1, 6, -11, -7, -7, -3, 21, -98, 31, 13, -127, 6], [-27, 3, -19, 14, 8, 12, -3, -6, -4, 1, -2, 4, -9, -7, 7, 13, -9, -127], [11, -25, -45, -80, 70, -79, -5, 2, -17, -8, 29, 63, 97, 13, -76, 127, -6, 25], [31, -2, 8, 0, 7, 21, -2, 2, -6, 2, -2, -28, -127, -63, -107, 33, 24, 6], [-87, -5, 19, 10, 6, -9, -3, 1, -8, -17, -6, -9, 127, -45, -7, -19, 34, -40], [0, -2, 2, 20, 11, 3, -1, 1, -7, -3, -3, -9, 6, -68, 9, -1, -127, 1], [-15, -10, -19, 30, -46, -6, 4, 5, 9, -6, 0, -2, -2, -84, 74, 23, -127, 21], [11, -3, -3, 49, -43, -4, 0, 2, -5, -1, -9, -18, -34, 7, 14, -127, 14, 5], [4, -1, -55, 60, -31, -36, 3, -36, 6, 19, -24, -34, -51, -90, -113, 27, -127, -121], [9, -2, 35, -4, -21, 5, -6, -6, -4, 1, -3, -26, 107, -127, 13, -21, 0, 11], [-99, -3, 3, -83, -20, 12, 36, -5, -11, -18, 9, -53, -7, 46, 90, -27, 127, -47], [120, 0, -4, 9, 21, -5, 10, -11, -6, -3, 8, 2, -127, 4, 93, 76, -76, 7], [63, -9, -27, 31, 28, -8, -3, -4, 4, 5, -23, -22, -13, -127, -125, 32, -55, 7], [121, -69, 110, -66, -125, 37, 76, 87, -78, -119, -66, 43, 40, 17, 15, -32, -127, -29], [-70, -4, -3, 51, -4, 3, 4, -5, -4, 4, 3, -1, -127, -102, 10, -14, -4, -8], [-28, -10, 3, -32, -21, -1, 7, -4, -5, -3, -17, -52, -127, -19, 13, -19, -44, -80]], "bias": [-10489248, 2103868, -87187933, -6474312, 1838230, 3155844, -33897240, 2343434, 34421811, 1165810, -37266417, -25473412, 4681647, -21295754, 5405529, 18329212], "input_shift": [5, 2, 4, 7, 5, 4, 1, 1, 2, 3, 2, 3, 0, 0, 0, 0, 0, 0], "input_clamp": [[-17342, -222676, -57004, -17342, -33240, -98572, -206260, -445357, -228037, -216824, -265954, -198581, -412528, -890717, -912164, -1734629, -1063831, -1588679], [27564, 399251, 102210, 28087, 59601, 176739, 369820, 798507, 408864, 388759, 476847, 356050, 739649, 1597017, 1635472, 3110114, 1907404, 2848432]]}, {"type": "relu"}, {"type": "linear", "weight": [[-37, 6, -22, -127, 20, 47, -28, -60, -5, -73, -7, 20, -13, 10, -52, 6], [-44, -44, -14, 16, -54, -45, -74, -37, -32, 45, -3, 53, -10, -54, -127, -50], [4, 10, -32, -64, -23, -12, -127, 26, -22, -12, -5, -8, 26, -12, -15, -6], [-20, 40, -86, -115, -16, -5, -77, 1, -18, -13, -5, -127, -2, -60, -21, -27], [-51, -112, 28, -127, -1, 34, -17, 10, 72, 8, -11, -78, -122, -23, -27, -7], [-7, -67, -3, 9, 35, -72, -63, -63, 5, -56, -16, 45, -2, -22, -127, -65], [-24, 3, -47, -127, -26, -16, -28, 21, -4, 34, 6, 26, 4, -2, -29, 2], [37, -33, -82, -127, 24, -17, -120, 13, 2, -10, -13, -6, -4, 8, -16, -1], [45, 30, 24, -20, -90, -36, -127, 3, -6, 15, 5, -29, -7, -16, -58, -18], [-105, -41, 19, 44, -42, -18, -127, -12, -5, 78, -55, 106, -6, -49, 32, -108], [-31, -14, -25, -49, -10, -18, -127, 5, -46, 25, -65, 25, -3, 4, -12, -32], [17, -7, -39, -24, -15, -10, -82, 0, -8, 6, -7, -127, 37, -13, 18, 1], [16, -56, 39, -27, 14, -20, -127, 8, 12, -49, -17, -30, -20, -28, 21, 1], [-22, -28, -110, -127, -72, -34, -2, 1, -23, -27, -11, -79, 27, -64, 18, -19], [9, -96, -68, -127, -14, -27, -62, -17, 23, -77, -1, -14, -77, -45, 70, 1], [-78, -35, -6, 43, -23, -93, -119, -47, -32, 105, 17, 84, -1, 36, -127, -13], [36, 46, -127, -97, -118, -40, -90, 14, -60, -36, -5, -114, 82, -12, -7, -9], [-24, 34, -116, -75, -95, 24, 0, -31, -28, -12, 20, -127, -20, -56, -81, -11], [-10, -111, 65, -53, -81, -80, -91, -71, 24, -63, -34, -23, -127, -51, 95, -2], [-29, -16, -28, -127, -42, 19, -16, 20, 32, -28, -3, -45, -51, -46, -16, -24], [-33, 65, -85, -74, 25, -61, 55, 33, -18, 31, -26, -127, 53, -41, -27, 15], [5, -25, -17, 49, -65, -82, -127, -82, -7, 94, -17, 20, -4, -22, 78, -5], [-28, -12, -34, -127, -18, 9, -20, 5, -5, 7, 5, -10, 1, -12, 4, -16], [4, 37, 11, -81, -123, -30, -127, 9, -19, 10, 0, -60, -23, -17, -20, -5], [-2, 2, -127, -63, -4, -3, -13, -5, -6, -6, 3, -5, -1, 0, 0, -1], [-92, -63, 20, 20, -8, 32, -127, -5, 13, -4, -36, 27, -13, -4, 59, -63], [-12, -21, 1, -17, 6, -5, -127, 14, 3, -13, -2, 7, -6, -8, 36, -21]], "bias": [19191122, 26351735, -11032952, 7024164, -10202050, 28460386, -13514835, -8981893, -6235053, -13675274, -39646682, -23225010, -1876486, 5696046, 9741432, 684099, -89798, -37916315, 34093478, 11806021, 206477, -12517840, -8453368, -952266, -2727574, -30839277, -42639078], "input_shift": [3, 4, 6, 6, 5, 3, 4, 4, 5, 5, 4, 6, 5, 2, 4, 4], "input_clamp": [[-178238, -91749, -159586, -85488, -97482, -119349, -122286, -90442, -184554, -89229, -327171, -109854, -122605, -183311, -83543, -172697], [1950754, 1004187, 1746607, 935659, 1066930, 1306241, 1338401, 989890, 2019878, 976617, 3580730, 1202308, 1341870, 2006273, 914374, 1890105]]}, {"type": "scaled_softmax", "weight": [753559, 320285, 960260, 446372, 445762, 337979, 1100024, 857828, 897213, 258714, 661944, 857011, 562622, 396819, 303024, 312342, 450882, 519971, 268940, 409105, 400744, 475601, 1254905, 895649, 5172231, 553191, 1020421], "frac_bits": 47}], "prob_dot": [0, 0, 63, 158, 298, 486, 724, 1011, 1380, 1794, 2188, 2594, 3029, 3481, 3925, 4389, 4834, 5275, 5704, 6105, 6496, 6842, 7177, 7486, 7770, 8051, 8285, 8506, 8721, 8894, 9065, 9234, 9369, 9491, 9589, 9674, 9749, 9828, 9895, 9955, 9999], "prob_comma": [[9999], [0, 9999], [0, 0, 9999], [0, 586, 1254, 9999], [0, 1134, 1985, 2268, 9999], [0, 1005, 1844, 2633, 2875, 9999], [0, 727, 1696, 2487, 3443, 3826, 9999], [0, 763, 1754, 2631, 3291, 4020, 4157, 9999], [0, 914, 1817, 2921, 3434, 3947, 4515, 4615, 9999], [0, 944, 2211, 3341, 4049, 4446, 4794, 5428, 5565, 9999], [0, 966, 1955, 2838, 3733, 4499, 4982, 5229, 5771, 5865, 9999], [0, 935, 1771, 2779, 3419, 4083, 4772, 5276, 5657, 6100, 6211, 9999], [0, 924, 2129, 2986, 4084, 4833, 5234, 5743, 6225, 6479, 7068, 7188, 9999], [0, 603, 2040, 2931, 3577, 4381, 5042, 5717, 6335, 6709, 6896, 7169, 7183, 9999], [0, 833, 1959, 3055, 4034, 4853, 5525, 6139, 6621, 7235, 7498, 7747, 8069, 8084, 9999], [0, 822, 1879, 2818, 3657, 4647, 5385, 5989, 6626, 6961, 7481, 7666, 7851, 8220, 8254, 9999], [0, 968, 1970, 2788, 3973, 4657, 5408, 6193, 6844, 7361, 7812, 8129, 8313, 8463, 8914, 8914, 9999], [0, 1018, 2143, 3161, 3786, 4607, 5321, 6035, 6714, 7321, 7767, 8160, 8374, 8606, 8767, 9142, 9142, 9999], [0, 940, 1987, 2842, 3846, 4466, 5321, 6325, 6795, 7564, 7991, 8226, 8589, 8717, 8995, 9038, 9273, 9294, 9999], [0, 950, 1923, 2828, 3574, 4592, 5338, 6062, 6560, 7352, 7691, 8189, 8393, 8710, 8868, 9049, 9230, 9524, 9547, 9999], [0, 1084, 2120, 2939, 3638, 4481, 5324, 5878, 6480, 6914, 7396, 7709, 8263, 8600, 8769, 9155, 9372, 9493, 9903, 9999, 9999], [0, 561, 1683, 2550, 3366, 4182, 4998, 5738, 6401, 7243, 7779, 8060, 8213, 8417, 8825, 9055, 9310, 9540, 9718, 9999, 9999], [0, 659, 1404, 1891, 3180, 4183, 5071, 5902, 6418, 6934, 7421, 7965, 8481, 8767, 8996, 9196, 9397, 9598, 9684, 9741, 9999], [0, 699, 1976, 2979, 3739, 4438, 5228, 5927, 6504, 7081, 7780, 8114, 8388, 8662, 8996, 9300, 9482, 9604, 9786, 9877, 9999], [0, 1024, 2253, 3140, 3959, 4607, 5221, 6177, 6416, 7133, 7747, 8122, 8429, 8566, 8873, 9385, 9556, 9761, 9829, 9931, 9999], [0, 939, 2202, 3141, 4224, 4946, 5596, 6426, 6931, 7075, 7328, 7761, 8086, 8664, 8881, 9170, 9387, 9567, 9747, 9819, 9999], [0, 844, 1688, 2444, 3288, 4043, 4887, 5598, 6265, 6932, 7243, 7732, 8176, 8443, 8799, 9110, 9243, 9599, 9777, 9866, 9999], [0, 685, 1598, 2237, 3333, 4109, 4839, 5570, 6346, 6757, 7259, 7944, 8172, 8537, 8994, 9222, 9496, 9679, 9816, 9816, 9999], [0, 678, 1356, 2090, 2373, 3220, 3898, 4915, 5423, 5988, 6553, 7231, 8248, 8531, 8644, 9039, 9152, 9434, 9660, 9717, 9999], [0, 435, 1250, 1848, 2500, 3696, 4403, 5218, 6033, 6522, 7066, 7120, 7609, 8261, 8587, 8859, 9402, 9619, 9619, 9836, 9999], [0, 961, 2115, 2564, 3461, 3910, 4295, 5385, 5898, 6475, 7116, 7757, 8077, 8462, 8975, 9231, 9359, 9487, 9551, 9871, 9999], [0, 219, 1459, 2043, 2773, 3211, 4087, 4525, 5182, 5912, 6204, 7152, 7590, 8101, 8320, 8758, 9050, 9050, 9269, 9415, 9999], [0, 609, 1478, 2000, 2782, 3651, 4346, 5128, 5650, 6346, 6433, 6607, 7476, 8172, 8694, 8955, 9129, 9216, 9564, 9825, 9999], [0, 957, 1914, 2446, 3829, 4254, 5424, 5956, 6594, 6807, 7232, 7445, 7658, 8403, 8616, 8935, 9254, 9467, 9680, 9786, 9999], [0, 250, 1749, 2874, 3999, 4374, 4624, 5749, 5874, 6499, 6749, 7124, 7624, 7874, 7874, 8374, 8999, 9249, 9749, 9874, 9999], [0, 1097, 1706, 2437, 2925, 3900, 4388, 4997, 5241, 5729, 6095, 6705, 7193, 7437, 7681, 8047, 8291, 8901, 9267, 9755, 9999], [0, 1358, 2469, 3827, 4691, 4938, 6049, 6419, 6913, 7901, 8025, 8148, 8395, 8642, 9012, 9012, 9259, 9506, 9876, 9876, 9999], [0, 625, 2344, 2813, 4375, 5156, 5625, 6250, 7031, 7812, 7968, 8281, 8437, 8437, 8906, 8906, 8906, 9687, 9687, 9999, 9999], [0, 1228, 2105, 2807, 3509, 4386, 4912, 5438, 6315, 7017, 7192, 7543, 7543, 8420, 9122, 9473, 9473, 9473, 9824, 9999, 9999], [0, 962, 2116, 2693, 3654, 4039, 4231, 4808, 5385, 6154, 6539, 7308, 7885, 8462, 9231, 9423, 9615, 9807, 9807, 9999, 9999], [0, 833, 1666, 2777, 4165, 4165, 4165, 5554, 5832, 6387, 7776, 8054, 8332, 8610, 9165, 9443, 9443, 9721, 9721, 9999, 9999]]}