{"lang": "la", "letters": " abcdefghilmnopqrstuvx", "letters_embedding": [[0.0, 0.0, 255.0], [0.0, 187.0, 0.0], [41.0, 21.0, 0.0], [4.0, 32.0, 39.0], [0.0, 29.0, 0.0], [0.0, 255.0, 0.0], [14.0, 48.0, 71.0], [9.0, 0.0, 30.0], [38.0, 0.0, 37.0], [0.0, 124.0, 0.0], [7.0, 43.0, 7.0], [21.0, 0.0, 0.0], [0.0, 84.0, 0.0], [0.0, 215.0, 0.0], [0.0, 0.0, 64.0], [255.0, 0.0, 0.0], [0.0, 52.0, 0.0], [0.0, 0.0, 0.0], [46.0, 0.0, 0.0], [0.0, 210.0, 58.0], [40.0, 0.0, 39.0], [13.0, 33.0, 59.0]], "group": [{"type": "linear", "weight": [[7, 3, -1, -4, -12, 4, -31, 4, -15, -41, -127, -78], [1, 1, 1, -2, -3, 4, -14, 7, -1, 3, 38, -127], [-25, 8, 4, 55, -4, 42, -43, 8, -127, -114, 85, -45], [-7, 6, -7, -30, -1, -4, 113, 11, 6, -127, 90, 71], [-6, 0, -1, -8, 6, 18, 66, 10, 7, -127, -10, 114], [-21, -17, 13, 2, 4, -22, -127, -7, -124, -125, -39, 107], [-1, 1, -3, 0, 7, -3, 22, -2, 9, -6, -4, -127], [10, 1, 1, -2, -3, -21, 30, 27, 12, -127, -26, -52], [-7, 3, -15, -19, -13, 41, 20, -53, 41, 127, -54, -72], [-45, -5, -14, -3, -50, -15, 127, 31, 23, 4, 6, -111], [-6, 0, -6, 19, 12, -6, -69, 11, -127, -78, 6, -60], [6, 1, -7, -2, -5, -9, -3, 19, -6, 127, 4, -24], [-2, 2, -5, 6, 9, 7, 38, 9, 23, 8, -127, -125], [26, -4, -49, 13, 2, -58, -9, -18, -86, -127, 83, -40], [-1, -1, 1, -1, 0, 0, 10, -16, 27, -127, -36, 13], [-83, -29, 3, 2, 27, 7, -51, -34, -10, 8, 3, -127]], "bias": [4262, -2859, -5557, -9902, -1451, 9190, 1279, 167, 3364, -5760, 4753, -2272, 871, -4734, 1994, -2109], "input_shift": [0, 1, 0, 0, 1, 0, 0, 0, 0, 0, 0, 0], "input_clamp": [[-509991, -253993, -509991, -509991, -253993, -509991, -509991, -509991, -509991, -509991, -509991, -509991], [510246, 254120, 510246, 510246, 254120, 510246, 510246, 510246, 510246, 510246, 510246, 510246]]}, {"type": "relu"}, {"type": "linear", "weight": [[13, 2, -36, 1, -110, -32, 42, 8, 34, 73, 31, -13, 31, -3, -127, 38], [6, 19, -13, 3, 10, 17, 1, -127, 65, 24, -60, -8, -9, -24, 13, 10], [-69, -127, 83, -21, -17, -3, -81, 15, -49, -35, -7, 2, 20, -17, -85, 81], [42, -77, -15, 19, -85, -69, 61, -107, 103, 75, 19, -95, -48, 64, -33, -127], [-34, -127, -24, -100, -32, 12, 20, -12, 9, -19, 20, 25, -31, -65, 13, -4], [69, 14, 39, 2, -51, -91, 15, -15, 34, -38, -66, 45, -127, 66, 13, 96]], "bias": [158476, -4828, 73564, 274237, 244376, 21082], "input_shift": [0, 0, 2, 0, 2, 2, 0, 0, 2, 1, 2, 0, 0, 2, 0, 0], "input_clamp": [[-604232, -860560, -668248, -3860058, -793833, -910830, -413189, -729548, -1194190, -963271, -230640, -3183849, -938586, -399446, -1125561, -372953], [610915, 870078, 675639, 3902751, 802613, 920904, 417759, 737617, 1207398, 973925, 233191, 3219063, 948967, 403864, 1138010, 377078]]}, {"type": "relu"}], "head": [{"type": "linear", "weight": [[12, -3, 2, 2, 3, -14, 2, -2, 10, 5, 13, -3, -3, -127, -21, 12, -4, -26], [-9, 9, -3, -19, -23, 9, 5, -4, -42, -4, -3, -26, 23, 20, -127, -7, 27, 20], [-34, 51, 85, -42, 112, 47, 38, -12, -52, -26, 23, -49, -65, -49, -34, 10, -127, 78], [-21, 10, -10, 18, 14, -5, 15, -20, 26, 16, 27, 37, 11, -127, -24, 3, -12, -1], [16, -10, -4, 89, -3, 2, 16, -6, -15, 3, 4, 40, -127, 6, 4, 16, -24, -4], [2, -91, -24, 78, 32, -60, -12, -11, -13, 13, -4, 9, 68, -37, -127, -6, -36, -17], [-87, -96, 0, -56, 13, -45, 16, -13, -13, -1, 26, 60, 66, 26, -82, 13, 73, -127], [-46, -17, 27, 48, -39, -58, -37, -27, -6, -29, 115, -101, -4, 2, -84, 55, 127, -17], [13, 60, -25, -50, 90, -37, -12, -19, -14, -44, 72, -91, 25, 28, 36, 21, 127, -58], [-13, 2, 12, -9, -3, -5, -25, -9, -26, 25, 30, -30, -127, -43, -3, -2, 25, -4], [77, -68, -21, 36, 13, 38, 12, -18, 38, 26, 11, 40, -90, -127, -56, 47, -16, -12], [-38, 69, 14, 31, 8, 5, 3, -15, -8, 44, -15, 58, -50, -127, -58, -6, -75, 6], [-47, 10, 71, -67, 43, -87, -74, -21, -69, 59, 85, 13, -14, -60, -127, 68, 118, -59], [0, -11, 5, 33, 9, 11, 2, -10, 4, -3, 3, -5, -16, 14, -127, -58, 3, -9], [-26, 2, -12, -2, 9, -25, -6, -7, 4, 11, 10, -11, -28, -127, -51, -12, 16, -37], [-48, 43, 66, -9, -50, 1, 48, -88, -100, 81, -107, -22, 118, -36, -3, -127, 65, 71]], "bias": [2107710, -8013291, 14569572, 2311092, 2679420, -3228184, -14867455, -29722358, -21684558, 304873, 1932863, 12160103, -1036660, 4770863, 9384857, -33552621], "input_shift": [5, 5, 3, 6, 5, 5, 3, 2, 3, 4, 4, 5, 0, 0, 0, 0, 0, 0], "input_clamp": [[-31334, -28131, -52138, -38579, -49090, -76754, -125346, -225086, -52138, -154340, -98187, -76754, -1002794, -900363, -417138, -2469526, -1571062, -2456381], [51333, 46087, 85415, 63204, 80422, 125742, 205343, 368738, 85415, 252842, 160852, 125742, 1642772, 1474971, 683356, 4045562, 2573705, 4024027]]}, {"type": "relu"}, {"type": "linear", "weight": [[-11, -127, 4, 110, -77, -16, 28, -104, -9, 21, 9, 29, -41, -123, -11, 103], [1, 127, -71, 75, 30, -28, 9, 27, -39, -34, -75, -36, 113, 9, -3, -61], [3, -103, -17, -17, 2, -26, 10, -127, -84, -26, -18, -4, 1, -20, -33, -54], [12, -87, -13, -89, -12, -18, -7, -127, -64, 10, -16, -9, -92, -1, -15, -53], [1, -127, -8, -51, -7, 8, -12, -18, -36, -61, -7, 5, -26, -2, -5, -27], [-28, -127, -37, 83, -42, -72, 33, 44, -3, -22, 3, -50, 17, 32, 22, -28], [2, -127, -17, -35, -7, -21, 22, -94, -39, -5, -5, 9, -29, 3, -11, 10], [-7, -127, 0, -73, 2, 22, -30, -117, -36, -55, -4, 8, -13, -6, 9, -21], [-83, 127, -91, -118, -26, -87, 53, -33, -61, 17, 16, 41, 39, 69, -10, -5], [-13, -127, -108, -31, 35, 20, 3, 16, 46, -46, -31, 4, 63, -9, 37, -40], [0, -127, 23, -99, -12, 17, -65, -28, 89, -23, -1, -41, 23, 0, -57, -75], [6, 56, -2, 83, 11, -66, 46, -61, -110, -61, -6, -1, -114, -5, -48, -127], [-6, -29, 60, 25, 27, 11, -61, 4, -91, -127, -35, -73, 67, 5, 46, -79], [-5, 127, -36, 65, 21, 3, -10, 11, 9, -15, -24, -33, 66, -2, 6, -84], [-2, -83, 4, -56, 0, 5, 36, -63, -127, 11, -11, -25, -16, 12, -5, -34], [5, 35, -38, -13, -22, -1, 36, -127, -62, -74, -27, 39, -106, 38, -88, 39], [-16, 127, 15, -2, -16, -53, 18, 4, -24, -13, 14, -41, -17, 8, -3, -42], [0, 127, -2, 48, -13, 11, -26, -50, -49, -28, 10, -21, -60, 13, -15, -60], [-26, 127, -18, 74, 7, 56, -108, -102, -7, -8, -10, -16, 19, -16, 9, -105], [5, 127, -18, -20, 8, -14, 1, 17, -22, -14, -42, -23, 40, -11, 20, -11], [-6, -127, -11, 7, -15, -21, -17, -31, -10, -70, 1, -2, -34, 5, -12, -2], [-1, 39, -2, -51, 3, 20, -29, -15, -112, -31, -2, 12, -24, -12, -13, -127]], "bias": [2460727, 1735693, 5055426, 11225829, 3413325, 8400317, -65136, -2797273, -32755986, 4210995, -2139490, 316186, -14331832, -10583337, -1617147, -17703322, 1505710, 2770870, 6946052, -1651010, 1512473, -4148778], "input_shift": [2, 6, 6, 5, 4, 5, 5, 5, 6, 3, 4, 5, 7, 4, 4, 6], "input_clamp": [[-197041, -92691, -92098, -27874, -121683, -92510, -147024, -239774, -127125, -247583, -191055, -54466, -62709, -62317, -88042, -249208], [2202949, 1036313, 1029673, 311659, 1360434, 1034287, 1643748, 2680664, 1421268, 2767968, 2136009, 608957, 701115, 696719, 984334, 2786151]]}, {"type": "scaled_softmax", "weight": [1557428, 1007536, 3089837, 2129101, 3597912, 1094529, 5543976, 3368934, 1015142, 1031881, 2158903, 1583893, 1431525, 1888686, 2757649, 1289644, 2512180, 2243300, 1748163, 1655711, 4320119, 7664406], "frac_bits": 48}], "prob_dot": [0, 0, 387, 819, 1312, 1868, 2511, 3135, 3681, 4196, 4699, 5210, 5733, 6217, 6637, 6991, 7295, 7575, 7843, 8087, 8305, 8496, 8663, 8818, 8965, 9097, 9210, 9314, 9408, 9487, 9560, 9628, 9687, 9742, 9790, 9833, 9875, 9912, 9944, 9975, 9999], "prob_comma": [[9999], [0, 9999], [0, 0, 9999], [0, 895, 1666, 9999], [0, 695, 1651, 2319, 9999], [0, 653, 1662, 2452, 2962, 9999], [0, 691, 1717, 2863, 3543, 3894, 9999], [0, 820, 1907, 3233, 4264, 4790, 5021, 9999], [0, 858, 2072, 3423, 4797, 5575, 5957, 6108, 9999], [0, 777, 1888, 3385, 4816, 5907, 6508, 6793, 6882, 9999], [0, 743, 1837, 3242, 4797, 6075, 6866, 7272, 7445, 7514, 9999], [0, 787, 1870, 3156, 4558, 5979, 7007, 7638, 7915, 8039, 8086, 9999], [0, 735, 1877, 3178, 4526, 5811, 7003, 7773, 8227, 8467, 8586, 8615, 9999], [0, 828, 1961, 3355, 4661, 5905, 6993, 7853, 8425, 8719, 8876, 8951, 8977, 9999], [0, 818, 1961, 3311, 4664, 5909, 6962, 7797, 8398, 8822, 9081, 9230, 9286, 9307, 9999], [0, 812, 1942, 3241, 4604, 5904, 6940, 7755, 8370, 8843, 9182, 9402, 9483, 9518, 9524, 9999], [0, 787, 1914, 3143, 4609, 5917, 7000, 7782, 8392, 8925, 9259, 9498, 9638, 9711, 9740, 9751, 9999], [0, 797, 1810, 3109, 4447, 5699, 6834, 7702, 8332, 8819, 9193, 9472, 9677, 9775, 9828, 9854, 9858, 9999], [0, 750, 1716, 3011, 4275, 5603, 6730, 7689, 8259, 8767, 9175, 9434, 9683, 9799, 9880, 9921, 9927, 9933, 9999], [0, 729, 1737, 2954, 4252, 5477, 6686, 7569, 8176, 8698, 9028, 9341, 9552, 9738, 9857, 9945, 9964, 9974, 9974, 9999], [0, 695, 1686, 2951, 4164, 5342, 6445, 7231, 7874, 8421, 8848, 9247, 9508, 9675, 9823, 9910, 9969, 9990, 9997, 9999, 9999], [0, 752, 1770, 3097, 4347, 5506, 6477, 7253, 7886, 8426, 8851, 9189, 9404, 9577, 9731, 9829, 9922, 9975, 9991, 9999, 9999], [0, 719, 1752, 2855, 4029, 5153, 6139, 6969, 7623, 8251, 8738, 9087, 9354, 9580, 9721, 9821, 9885, 9938, 9973, 9993, 9999], [0, 678, 1632, 2826, 4141, 5341, 6339, 7088, 7697, 8141, 8651, 9021, 9310, 9549, 9680, 9773, 9838, 9906, 9946, 9980, 9999], [0, 691, 1618, 2797, 3945, 5086, 6085, 6901, 7617, 8146, 8550, 8916, 9227, 9466, 9639, 9746, 9815, 9894, 9929, 9964, 9999], [0, 728, 1821, 2953, 4124, 5213, 6252, 7022, 7641, 8124, 8529, 8879, 9186, 9369, 9567, 9699, 9812, 9886, 9925, 9987, 9999], [0, 712, 1737, 2883, 4154, 5260, 6289, 7072, 7667, 8218, 8540, 8876, 9140, 9377, 9516, 9650, 9766, 9824, 9923, 9959, 9999], [0, 756, 1651, 2880, 4143, 5252, 6336, 7202, 7804, 8267, 8685, 8983, 9232, 9476, 9620, 9759, 9819, 9894, 9944, 9984, 9999], [0, 682, 1639, 2701, 3901, 4952, 6075, 6796, 7368, 7913, 8320, 8689, 8970, 9273, 9449, 9592, 9746, 9851, 9950, 9983, 9999], [0, 680, 1679, 2720, 4062, 5233, 6232, 7018, 7645, 8124, 8544, 8840, 9124, 9372, 9532, 9662, 9739, 9833, 9916, 9987, 9999], [0, 693, 1553, 2765, 3932, 5080, 6126, 6934, 7524, 8031, 8422, 8807, 9076, 9281, 9435, 9595, 9736, 9832, 9903, 9954, 9999], [0, 806, 1791, 2962, 4091, 5186, 6171, 7018, 7597, 8072, 8506, 8788, 9112, 9312, 9491, 9594, 9704, 9800, 9910, 9965, 9999], [0, 818, 1790, 3045, 4251, 5328, 6105, 6987, 7570, 8080, 8477, 8825, 9092, 9311, 9505, 9635, 9740, 9845, 9918, 9983, 9999], [0, 749, 1751, 2944, 4129, 5113, 6054, 6803, 7535, 8136, 8624, 8885, 9138, 9303, 9460, 9608, 9712, 9886, 9929, 9964, 9999], [0, 807, 1808, 3013, 4279, 5413, 6393, 7047, 7619, 8048, 8497, 8906, 9120, 9345, 9529, 9723, 9805, 9825, 9886, 9968, 9999], [0, 773, 1900, 3071, 4320, 5337, 6254, 7016, 7602, 8055, 8486, 8806, 9071, 9248, 9414, 9536, 9713, 9790, 9878, 9933, 9999], [0, 842, 1844, 2908, 4047, 5433, 6336, 7066, 7623, 8019, 8415, 8836, 9133, 9281, 9467, 9603, 9714, 9776, 9850, 9937, 9999], [0, 669, 1711, 2908, 4053, 5147, 6112, 6768, 7437, 8003, 8351, 8776, 9085, 9317, 9446, 9600, 9690, 9754, 9883, 9947, 9999], [0, 887, 2015, 3218, 4271, 5534, 6421, 7248, 7895, 8406, 8752, 8978, 9158, 9429, 9504, 9624, 9744, 9849, 9894, 9969, 9999], [0, 701, 1607, 2564, 3726, 4905, 5794, 6666, 7299, 7914, 8341, 8615, 8872, 9248, 9453, 9675, 9709, 9846, 9897, 9965, 9999], [0, 683, 1438, 2751, 3920, 4981, 6006, 6869, 7462, 7965, 8415, 8811, 9045, 9207, 9297, 9495, 9711, 9837, 9891, 9945, 9999]]}