{"lang": "pl", "letters": " a\u0105bc\u0107de\u0119fghijkl\u0142mn\u0144o\u00f3prs\u015btuwyz\u017a\u017c", "letters_embedding": [[0.0, 0.0, 0.0], [167.0, 0.0, 34.0], [183.0, 22.0, 37.0], [0.0, 96.0, 208.0], [0.0, 255.0, 0.0], [255.0, 0.0, 30.0], [0.0, 166.0, 106.0], [145.0, 0.0, 0.0], [207.0, 2.0, 30.0], [0.0, 40.0, 191.0], [0.0, 120.0, 166.0], [0.0, 0.0, 101.0], [218.0, 0.0, 60.0], [196.0, 15.0, 138.0], [0.0, 0.0, 184.0], [154.0, 5.0, 191.0], [0.0, 248.0, 208.0], [0.0, 0.0, 197.0], [0.0, 0.0, 255.0], [203.0, 29.0, 33.0], [109.0, 0.0, 45.0], [134.0, 0.0, 0.0], [0.0, 20.0, 158.0], [0.0, 20.0, 101.0], [0.0, 146.0, 0.0], [158.0, 32.0, 89.0], [0.0, 167.0, 210.0], [147.0, 18.0, 44.0], [39.0, 22.0, 198.0], [180.0, 0.0, 44.0], [100.0, 0.0, 154.0], [125.0, 86.0, 76.0], [129.0, 137.0, 154.0]], "group": [{"type": "linear", "weight": [[-2, 3, -1, -127, -43, -47, -48, 66, -4, -38, 39, -37], [12, 15, 10, 8, 9, 8, -1, 4, 2, -59, 11, -127], [0, -1, -1, -5, -1, -2, -99, -36, -127, 38, 21, 9], [1, 2, -1, -4, 2, -2, 6, 29, 23, 58, -46, 127], [-4, 1, -4, -4, -2, -2, 4, 0, -6, -6, 48, -127], [5, 5, 10, -3, -11, -21, 34, 55, 39, -127, -101, 114], [4, 4, 2, 0, 3, 3, 10, -127, -30, 14, -62, -7], [1, 6, -3, 3, 6, -4, 13, 0, -16, 127, 34, -46], [17, 1, 10, 23, 17, 9, -21, 45, 45, -24, -13, -127], [6, 5, 5, 10, 6, 6, -14, 10, 6, 50, 46, 127], [-17, -3, -9, -28, 6, -6, -16, 73, 114, -86, 17, 127], [-10, -1, -24, 11, 5, -20, 127, 71, 61, -20, -43, -55], [5, 8, -2, 9, 8, 11, 7, -127, 50, 22, 14, 80], [-2, 4, -2, -8, 6, 0, 17, -2, -122, -27, -127, 47], [-5, 0, -4, 0, 0, 1, -34, -78, -18, -127, 2, 8], [28, 38, -12, -123, -6, 99, 46, -45, 19, 16, 36, -127]], "bias": [-8139, 2655, -1054, -13951, 5015, -1650, 357, -12584, 3517, -16228, -24868, -18078, -14143, 2624, 3541, -26802], "input_shift": [1, 1, 1, 0, 0, 0, 0, 0, 0, 0, 0, 0], "input_clamp": [[-253993, -253993, -253993, -509991, -509991, -509991, -509991, -509991, -509991, -509991, -509991, -509991], [254120, 254120, 254120, 510246, 510246, 510246, 510246, 510246, 510246, 510246, 510246, 510246]]}, {"type": "relu"}, {"type": "linear", "weight": [[51, 42, 16, 20, -127, -103, 5, 72, 16, -3, -84, 34, 25, -111, -16, -3], [-77, -8, 127, 7, 34, -8, 4, 38, 30, 92, -21, 20, 33, -77, -62, -20], [-14, -84, -64, -13, -15, 80, -38, 17, 9, 120, -36, -16, 101, 78, 127, 68], [35, -127, -3, 16, -3, -3, 67, -8, 69, -8, -66, 4, 64, 19, -81, 41], [68, 17, 43, -63, 127, -2, -46, -85, 15, 10, 13, -2, -23, 24, -67, 25], [31, 88, 18, 62, -9, 3, -127, -4, -27, 13, -31, -72, 32, -58, 67, -47]], "bias": [-47905, -535760, -430, -57917, 81144, -455162], "input_shift": [0, 0, 0, 0, 0, 1, 0, 0, 1, 1, 1, 0, 2, 1, 0, 1], "input_clamp": [[-1014650, -999230, -747794, -2603371, -1532947, -2124996, -576798, -1906715, -1364349, -1187788, -1920681, -1608247, -484963, -809392, -506378, -952712], [1026494, 1010894, 756523, 2633760, 1550841, 2149801, 583531, 1928972, 1380275, 1201653, 1943101, 1627020, 490624, 818840, 512289, 963833]]}, {"type": "relu"}], "head": [{"type": "linear", "weight": [[-108, -54, 100, -92, 24, -24, 38, 76, 50, -6, -45, 24, 23, 62, 91, 10, -127, 5], [-20, -12, 22, -15, -4, -45, -4, 7, -22, 4, 10, 13, 25, -127, -40, 13, 20, -14], [-18, 11, -3, -7, -7, 7, 7, 4, 3, 7, 6, 11, 7, 7, -8, -127, -5, 53], [-36, 76, -38, -33, 15, 64, 62, -64, -46, 6, -11, -18, -29, 127, -22, 16, 34, -39], [1, 13, 8, -10, 14, 18, 8, -5, -19, -6, -26, 9, -56, -59, 10, -91, -127, -44], [-47, 9, -10, 6, -4, -5, 17, 30, 67, 19, -18, -15, 56, -18, -83, -127, 12, 19], [-61, 20, -3, 11, -12, 5, 41, 20, 40, 6, 55, 48, -35, 46, 12, 127, -60, -57], [-23, 6, -7, 9, -7, -61, 13, 1, 2, -4, -12, 6, 15, -46, -22, 12, -22, -127], [10, 3, -8, -9, 5, 23, -11, -1, -6, 1, -1, 4, 18, -127, -85, 32, 7, -105], [-85, -2, -80, 23, 10, -37, 58, 7, 73, 25, 2, 8, 36, -104, -126, -127, 26, 19], [4, 7, -4, 3, 0, -9, 3, 5, 6, 1, 4, -1, -19, 26, -36, 5, -9, -127], [30, 24, -65, -8, -10, 25, 27, 32, -39, 17, 0, -14, 14, -28, -4, 127, -88, 109], [-24, -73, 29, -25, 6, 42, 38, 18, -21, -7, 8, 43, -24, 127, 13, 49, 57, 29], [-18, 11, -1, 3, 3, -19, 0, 24, -26, 2, 4, 27, -69, 89, 6, -127, 5, 10], [9, 6, 2, -2, -2, 29, -3, 3, -14, -3, -1, 2, -127, 13, -5, -3, -20, -23], [-49, -24, -2, -17, -65, -50, 72, 74, 46, 84, 82, 73, 123, 12, 2, 81, -127, -67]], "bias": [-65516039, -16830599, 2181998, -114615480, 14066325, -24348941, -8005836, 13897410, 2197230, 25352503, 12671722, -54063575, -95874025, -19418929, 8179049, -22527106], "input_shift": [5, 4, 6, 3, 4, 5, 4, 3, 5, 2, 4, 3, 0, 0, 0, 0, 0, 0], "input_clamp": [[-22151, -34215, -19565, -45707, -73452, -14523, -44309, -68436, -39137, -91422, -73452, -58107, -709047, -547539, -1252540, -365712, -1175261, -464890], [83376, 128774, 73642, 172023, 276417, 54665, 166760, 257555, 147292, 344055, 276417, 218678, 2668278, 2060497, 4713521, 1376247, 4422702, 1749464]]}, {"type": "relu"}, {"type": "linear", "weight": [[16, 64, -127, -118, -104, -16, 45, 21, -66, -57, -2, -67, -56, -55, -1, 14], [19, -65, -13, -20, -26, -127, -37, -120, 33, -23, -54, -13, -2, -70, 67, 3], [1, 21, -2, 26, -45, -83, -34, -127, -79, -26, -111, 1, -25, -50, 17, 14], [-7, -125, -117, -26, -44, -72, -16, -1, -12, 49, 11, -14, -127, -47, 24, 7], [-13, -75, -127, -66, -95, -24, -23, 4, -24, 8, -5, -15, -33, -73, -36, -3], [-12, -13, -20, 11, -47, -6, -9, 0, 0, -17, -5, -3, -33, -127, -7, 1], [-2, -65, -83, 0, -32, -51, -31, -6, 10, 4, 11, -32, -76, -127, 2, 0], [-32, 13, -52, 4, -53, -49, -50, -127, -39, -60, -53, 12, -13, -6, -13, 8], [-14, 18, -12, -20, -24, 8, -45, -127, -18, -89, -57, -3, -13, -45, -1, 0], [7, -8, -49, -9, -19, -127, -12, 3, -6, 7, 6, -3, -25, -15, -17, -2], [-36, -127, -118, -14, -55, 2, 7, -4, -5, -5, 7, -10, -52, -40, -27, -9], [-79, 1, 11, -120, -68, -21, 13, -21, 7, -7, 11, -127, 16, -11, -44, -30], [11, -17, 33, -127, -10, -52, 9, -22, -11, 10, -12, -8, 0, -100, -38, -54], [-83, -20, -113, -19, -82, -17, 0, -1, -7, -4, 1, -12, 0, -127, -38, -11], [-2, -8, -64, -127, -48, -7, -15, -5, 3, 2, 1, 5, -42, -12, -11, -9], [-50, -127, -52, -35, 30, -59, -37, -13, 5, -39, 12, -18, -111, -21, -54, 3], [-36, 9, -50, -127, -5, -63, -15, -8, 17, -49, -39, -49, -77, -45, -33, 5], [-127, -107, -126, -29, -60, -98, 3, -7, -24, 28, 3, 5, -49, 28, -41, 6], [-2, -52, -127, -67, -27, -45, -14, -12, 8, -4, -1, -11, -19, -47, -20, -8], [-6, -12, -46, 18, -82, -35, -17, 10, -7, -50, 8, 1, -116, -127, -10, -3], [-24, -87, -6, -58, 60, -52, -6, -127, 34, 3, -34, -17, -20, -24, 4, -21], [1, -20, -32, -76, 11, -41, -26, -38, -3, -9, -127, -22, -1, -25, 1, -9], [-22, -47, -32, 40, -60, -81, -4, -7, -6, 42, 2, -22, -127, -51, -3, -9], [-19, -63, 8, -127, 39, -66, 14, -4, 19, -6, 0, -41, -33, 2, -28, -11], [9, -120, -43, 4, -47, -52, -13, -1, -15, 28, 5, -27, -127, -120, -12, 1], [-7, -127, -53, 27, -105, -59, 16, -5, -10, 16, 9, -37, -107, -119, 8, 20], [29, 0, -87, -25, -22, -68, -5, 5, 0, 48, 5, -24, -115, -127, -37, -5], [-9, -23, -47, -17, 3, -127, -17, -56, 3, -21, -14, -9, 0, -40, -19, -11], [-127, -112, -22, 9, -56, -92, 16, -26, 5, 3, 2, -45, -94, 8, -39, -26], [-4, 13, -68, 46, -111, -30, -76, -73, -25, -80, -127, -20, -24, -24, -28, -72], [-127, -21, -47, -48, 14, -44, -46, -14, 18, 0, -23, -32, -9, 17, 16, -26], [-19, -17, -127, 9, -4, 2, -25, -4, 8, -22, 2, -65, -46, -76, -11, -3], [-26, -127, -37, -4, -34, -4, -15, -7, 10, -2, 4, -13, -42, -45, -30, -2]], "bias": [3392329, 10933583, -12154785, -19950366, 5599656, -987716, -4622101, 19981306, 2381907, -11140414, -3959496, -22514732, 2893637, 2709010, -1114065, -1616722, 4068392, -1086354, 6367125, -9172598, 7934410, -7828306, -8061439, -4972499, -4043913, -22489019, -15967443, 861777, 7536304, 28419120, 10030992, -1788052, -7116781], "input_shift": [8, 5, 6, 5, 6, 5, 7, 5, 5, 7, 4, 6, 6, 6, 4, 7], "input_clamp": [[-177413, -259146, -162262, -214670, -92175, -277153, -159476, -169020, -168103, -166190, -267370, -346134, -307162, -250345, -112827, -367161], [1205292, 1760573, 1102352, 1458399, 626241, 1882901, 1083438, 1148284, 1142036, 1129052, 1816428, 2351519, 2086744, 1700776, 766546, 2494365]]}, {"type": "scaled_softmax", "weight": [769623, 546694, 736473, 1045238, 883931, 5391262, 934788, 798865, 976023, 2954919, 1557748, 1257375, 1056476, 1774869, 1300262, 829148, 897822, 812914, 1003286, 3730433, 628830, 1306495, 1126352, 1363981, 1157082, 1344351, 839896, 819094, 564395, 820052, 1069001, 5530952, 1778980], "frac_bits": 47}], "prob_dot": [0, 0, 331, 784, 1314, 1881, 2470, 3064, 3669, 4260, 4826, 5370, 5884, 6353, 6775, 7165, 7520, 7842, 8128, 8382, 8606, 8799, 8967, 9114, 9245, 9357, 9456, 9541, 9614, 9676, 9731, 9781, 9818, 9853, 9882, 9907, 9932, 9953, 9971, 9986, 9999], "prob_comma": [[9999], [0, 9999], [0, 0, 9999], [0, 566, 811, 9999], [0, 502, 965, 1120, 9999], [0, 487, 1085, 1490, 1613, 9999], [0, 488, 1225, 2000, 2397, 2498, 9999], [0, 473, 1323, 2413, 3212, 3558, 3646, 9999], [0, 440, 1307, 2503, 3743, 4521, 4831, 4898, 9999], [0, 440, 1301, 2483, 3825, 4995, 5667, 5915, 5979, 9999], [0, 417, 1214, 2356, 3721, 5067, 6074, 6604, 6793, 6831, 9999], [0, 394, 1189, 2351, 3688, 5048, 6255, 7065, 7488, 7633, 7671, 9999], [0, 408, 1204, 2325, 3634, 4956, 6152, 7147, 7779, 8077, 8192, 8219, 9999], [0, 413, 1172, 2269, 3580, 4860, 6067, 7100, 7827, 8300, 8553, 8641, 8667, 9999], [0, 393, 1181, 2314, 3611, 4918, 6040, 7004, 7750, 8358, 8762, 8971, 9047, 9064, 9999], [0, 414, 1171, 2305, 3605, 4935, 6046, 6970, 7742, 8372, 8831, 9148, 9315, 9369, 9381, 9999], [0, 367, 1099, 2253, 3511, 4759, 5872, 6841, 7663, 8272, 8726, 9103, 9370, 9501, 9553, 9565, 9999], [0, 332, 1118, 2225, 3519, 4805, 6012, 6910, 7678, 8306, 8750, 9157, 9450, 9659, 9746, 9772, 9783, 9999], [0, 330, 1024, 2131, 3427, 4760, 5938, 6855, 7631, 8245, 8718, 9056, 9358, 9599, 9771, 9844, 9866, 9873, 9999], [0, 380, 1141, 2246, 3500, 4709, 5866, 6839, 7582, 8198, 8667, 9090, 9356, 9592, 9787, 9892, 9951, 9965, 9970, 9999], [0, 323, 1059, 2181, 3442, 4729, 5859, 6752, 7478, 8061, 8525, 8898, 9230, 9478, 9665, 9818, 9925, 9977, 9997, 9999, 9999], [0, 346, 1072, 2139, 3404, 4631, 5660, 6584, 7267, 7921, 8410, 8836, 9127, 9372, 9591, 9768, 9895, 9948, 9984, 9995, 9999], [0, 323, 1084, 2101, 3235, 4464, 5541, 6479, 7242, 7855, 8332, 8698, 8956, 9256, 9482, 9653, 9789, 9900, 9955, 9992, 9999], [0, 313, 961, 2012, 3260, 4532, 5675, 6634, 7336, 7925, 8376, 8795, 9062, 9294, 9464, 9610, 9742, 9874, 9939, 9977, 9999], [0, 339, 994, 1892, 3135, 4407, 5505, 6483, 7184, 7781, 8236, 8627, 8889, 9131, 9360, 9560, 9676, 9786, 9860, 9960, 9999], [0, 353, 1087, 2199, 3552, 4718, 5707, 6657, 7312, 7877, 8276, 8661, 9003, 9222, 9387, 9581, 9714, 9808, 9884, 9967, 9999], [0, 294, 1022, 2023, 3302, 4467, 5687, 6499, 7248, 7879, 8299, 8644, 8905, 9166, 9465, 9587, 9667, 9789, 9877, 9932, 9999], [0, 313, 949, 2025, 3258, 4515, 5596, 6574, 7283, 7968, 8457, 8829, 9128, 9324, 9471, 9603, 9730, 9843, 9897, 9926, 9999], [0, 367, 1112, 2082, 3267, 4514, 5609, 6427, 7172, 7815, 8306, 8645, 8967, 9266, 9430, 9599, 9734, 9841, 9931, 9982, 9999], [0, 335, 1048, 2071, 3359, 4502, 5562, 6490, 7279, 7809, 8289, 8731, 8983, 9261, 9406, 9564, 9722, 9766, 9867, 9955, 9999], [0, 375, 961, 1874, 3169, 4471, 5466, 6297, 7094, 7830, 8307, 8648, 8989, 9187, 9446, 9616, 9739, 9821, 9910, 9951, 9999], [0, 316, 1146, 2207, 3439, 4568, 5620, 6509, 7296, 7920, 8322, 8656, 8887, 9144, 9324, 9529, 9709, 9777, 9871, 9965, 9999], [0, 277, 1097, 2075, 3438, 4436, 5473, 6441, 7202, 7676, 8200, 8595, 8891, 9148, 9415, 9543, 9662, 9761, 9880, 9920, 9999], [0, 342, 1048, 2016, 3212, 4385, 5444, 6161, 7015, 7630, 8131, 8564, 8792, 9191, 9396, 9521, 9658, 9772, 9886, 9954, 9999], [0, 242, 780, 1855, 3495, 4745, 5901, 6734, 7339, 7809, 8252, 8696, 9045, 9220, 9489, 9623, 9757, 9838, 9932, 9972, 9999], [0, 369, 865, 1858, 2907, 4254, 5374, 6168, 6934, 7572, 8083, 8537, 8849, 9147, 9346, 9502, 9672, 9743, 9871, 9942, 9999], [0, 484, 1209, 2470, 3472, 4767, 5907, 6891, 7461, 7996, 8376, 8722, 9119, 9395, 9602, 9706, 9723, 9809, 9861, 9930, 9999], [0, 259, 857, 1753, 3008, 4024, 5159, 6314, 7091, 7689, 8147, 8565, 8824, 9143, 9322, 9521, 9660, 9740, 9879, 9999, 9999], [0, 409, 1091, 1977, 3136, 4477, 5818, 6659, 7409, 7795, 8181, 8522, 8817, 9067, 9294, 9567, 9703, 9794, 9862, 9885, 9999], [0, 337, 1034, 2068, 3414, 4351, 5769, 7091, 7644, 8197, 8582, 8919, 9183, 9327, 9423, 9591, 9687, 9783, 9831, 9831, 9999], [0, 567, 1247, 2323, 3314, 4589, 5524, 6346, 6969, 7649, 8272, 8640, 9008, 9206, 9404, 9602, 9687, 9829, 9886, 9971, 9999]]}